<?xml version="1.0"?>
<opencv_storage>
<!-- Created using Computer Vision Toolbox(tm) for MATLAB(R) -->
<!-- Version 9.6.0.1072779 (R2019a) -->
<!-- Compatible with OpenCV 3.4 -->
<cascade>
  <stageType>BOOST</stageType>
  <featureType>HAAR</featureType>
  <height>41</height>
  <width>32</width>
  <stageParams>
    <boostType>GAB</boostType>
    <minHitRate>9.9500000476837158e-01</minHitRate>
    <maxFalseAlarm>5.0000000000000000e-01</maxFalseAlarm>
    <weightTrimRate>9.4999999999999996e-01</weightTrimRate>
    <maxDepth>1</maxDepth>
    <maxWeakCount>100</maxWeakCount></stageParams>
  <featureParams>
    <maxCatCount>0</maxCatCount>
    <featSize>1</featSize>
    <mode>BASIC</mode></featureParams>
  <stageNum>17</stageNum>
  <stages>
    <!-- stage 0 -->
    <_>
      <maxWeakCount>2</maxWeakCount>
      <stageThreshold>-2.3170362412929535e-01</stageThreshold>
      <weakClassifiers>
        <_>
          <internalNodes>
            0 -1 66 1.1345359683036804e-01</internalNodes>
          <leafValues>
            -9.8924732208251953e-01 8.2857143878936768e-01</leafValues></_>
        <_>
          <internalNodes>
            0 -1 16 -6.2944591045379639e-02</internalNodes>
          <leafValues>
            7.5754368305206299e-01 -9.4413536787033081e-01</leafValues></_></weakClassifiers></_>
    <!-- stage 1 -->
    <_>
      <maxWeakCount>3</maxWeakCount>
      <stageThreshold>-1.0102317333221436e+00</stageThreshold>
      <weakClassifiers>
        <_>
          <internalNodes>
            0 -1 44 4.1155848652124405e-02</internalNodes>
          <leafValues>
            -9.4318181276321411e-01 6.0000002384185791e-01</leafValues></_>
        <_>
          <internalNodes>
            0 -1 79 8.2646235823631287e-02</internalNodes>
          <leafValues>
            -7.6936721801757813e-01 7.6425182819366455e-01</leafValues></_>
        <_>
          <internalNodes>
            0 -1 9 -3.0833957716822624e-02</internalNodes>
          <leafValues>
            7.5456130504608154e-01 -8.3130168914794922e-01</leafValues></_></weakClassifiers></_>
    <!-- stage 2 -->
    <_>
      <maxWeakCount>3</maxWeakCount>
      <stageThreshold>-8.7077456712722778e-01</stageThreshold>
      <weakClassifiers>
        <_>
          <internalNodes>
            0 -1 5 -3.8425162434577942e-01</internalNodes>
          <leafValues>
            7.5129532814025879e-01 -8.7146532535552979e-01</leafValues></_>
        <_>
          <internalNodes>
            0 -1 35 4.2299080640077591e-02</internalNodes>
          <leafValues>
            -6.9398039579391479e-01 7.6170742511749268e-01</leafValues></_>
        <_>
          <internalNodes>
            0 -1 89 2.5599375367164612e-02</internalNodes>
          <leafValues>
            -7.5724411010742188e-01 6.9467109441757202e-01</leafValues></_></weakClassifiers></_>
    <!-- stage 3 -->
    <_>
      <maxWeakCount>4</maxWeakCount>
      <stageThreshold>-7.4446135759353638e-01</stageThreshold>
      <weakClassifiers>
        <_>
          <internalNodes>
            0 -1 10 -4.0297918021678925e-02</internalNodes>
          <leafValues>
            4.9763032793998718e-01 -8.0592989921569824e-01</leafValues></_>
        <_>
          <internalNodes>
            0 -1 22 -1.1554948240518570e-01</internalNodes>
          <leafValues>
            4.5041418075561523e-01 -8.7347954511642456e-01</leafValues></_>
        <_>
          <internalNodes>
            0 -1 52 2.3219200968742371e-01</internalNodes>
          <leafValues>
            -8.1306278705596924e-01 4.2494285106658936e-01</leafValues></_>
        <_>
          <internalNodes>
            0 -1 0 -1.5048715472221375e-01</internalNodes>
          <leafValues>
            5.1000523567199707e-01 -7.2257083654403687e-01</leafValues></_></weakClassifiers></_>
    <!-- stage 4 -->
    <_>
      <maxWeakCount>4</maxWeakCount>
      <stageThreshold>-1.5976186990737915e+00</stageThreshold>
      <weakClassifiers>
        <_>
          <internalNodes>
            0 -1 62 -2.8444288298487663e-02</internalNodes>
          <leafValues>
            3.2046332955360413e-01 -8.5758513212203979e-01</leafValues></_>
        <_>
          <internalNodes>
            0 -1 49 -2.7840096503496170e-02</internalNodes>
          <leafValues>
            3.1035006046295166e-01 -8.2339459657669067e-01</leafValues></_>
        <_>
          <internalNodes>
            0 -1 65 1.1098882555961609e-01</internalNodes>
          <leafValues>
            -5.4366821050643921e-01 6.6355240345001221e-01</leafValues></_>
        <_>
          <internalNodes>
            0 -1 12 -9.1547518968582153e-03</internalNodes>
          <leafValues>
            6.1498481035232544e-01 -5.8019131422042847e-01</leafValues></_></weakClassifiers></_>
    <!-- stage 5 -->
    <_>
      <maxWeakCount>6</maxWeakCount>
      <stageThreshold>-1.7134814262390137e+00</stageThreshold>
      <weakClassifiers>
        <_>
          <internalNodes>
            0 -1 39 2.8095424175262451e-02</internalNodes>
          <leafValues>
            -5.7446807622909546e-01 6.7857140302658081e-01</leafValues></_>
        <_>
          <internalNodes>
            0 -1 83 -1.7656566575169563e-02</internalNodes>
          <leafValues>
            4.6454149484634399e-01 -5.8051669597625732e-01</leafValues></_>
        <_>
          <internalNodes>
            0 -1 6 -1.1971665918827057e-01</internalNodes>
          <leafValues>
            5.1329743862152100e-01 -4.6294587850570679e-01</leafValues></_>
        <_>
          <internalNodes>
            0 -1 19 -1.5219646692276001e-01</internalNodes>
          <leafValues>
            4.3947434425354004e-01 -6.2208604812622070e-01</leafValues></_>
        <_>
          <internalNodes>
            0 -1 56 -6.8944552913308144e-03</internalNodes>
          <leafValues>
            -8.9699602127075195e-01 3.5400617122650146e-01</leafValues></_>
        <_>
          <internalNodes>
            0 -1 71 5.0482645630836487e-02</internalNodes>
          <leafValues>
            -9.5515573024749756e-01 1.7252910137176514e-01</leafValues></_></weakClassifiers></_>
    <!-- stage 6 -->
    <_>
      <maxWeakCount>5</maxWeakCount>
      <stageThreshold>-9.1545528173446655e-01</stageThreshold>
      <weakClassifiers>
        <_>
          <internalNodes>
            0 -1 92 -1.2957306578755379e-02</internalNodes>
          <leafValues>
            5.3623187541961670e-01 -6.0360360145568848e-01</leafValues></_>
        <_>
          <internalNodes>
            0 -1 31 -7.0915734395384789e-03</internalNodes>
          <leafValues>
            3.1567129492759705e-01 -8.4951865673065186e-01</leafValues></_>
        <_>
          <internalNodes>
            0 -1 25 1.6950083896517754e-02</internalNodes>
          <leafValues>
            -4.0900689363479614e-01 7.7913880348205566e-01</leafValues></_>
        <_>
          <internalNodes>
            0 -1 1 -2.8971868753433228e-01</internalNodes>
          <leafValues>
            5.3405010700225830e-01 -5.5770850181579590e-01</leafValues></_>
        <_>
          <internalNodes>
            0 -1 38 7.1694612503051758e-02</internalNodes>
          <leafValues>
            -7.5256615877151489e-01 3.9691618084907532e-01</leafValues></_></weakClassifiers></_>
    <!-- stage 7 -->
    <_>
      <maxWeakCount>6</maxWeakCount>
      <stageThreshold>-1.4016796350479126e+00</stageThreshold>
      <weakClassifiers>
        <_>
          <internalNodes>
            0 -1 4 -2.6131961494684219e-02</internalNodes>
          <leafValues>
            2.8571429848670959e-01 -6.8279570341110229e-01</leafValues></_>
        <_>
          <internalNodes>
            0 -1 50 -1.7819528002291918e-03</internalNodes>
          <leafValues>
            -8.5869187116622925e-01 2.2145016491413116e-01</leafValues></_>
        <_>
          <internalNodes>
            0 -1 43 -3.8943430408835411e-03</internalNodes>
          <leafValues>
            3.6049953103065491e-01 -6.1519151926040649e-01</leafValues></_>
        <_>
          <internalNodes>
            0 -1 80 9.1911084949970245e-02</internalNodes>
          <leafValues>
            -4.7241270542144775e-01 5.5587911605834961e-01</leafValues></_>
        <_>
          <internalNodes>
            0 -1 15 1.1286269873380661e-02</internalNodes>
          <leafValues>
            -5.1742798089981079e-01 5.2983516454696655e-01</leafValues></_>
        <_>
          <internalNodes>
            0 -1 69 -3.0537344515323639e-02</internalNodes>
          <leafValues>
            7.7084702253341675e-01 -3.0381190776824951e-01</leafValues></_></weakClassifiers></_>
    <!-- stage 8 -->
    <_>
      <maxWeakCount>6</maxWeakCount>
      <stageThreshold>-8.6476320028305054e-01</stageThreshold>
      <weakClassifiers>
        <_>
          <internalNodes>
            0 -1 45 -3.8821920752525330e-02</internalNodes>
          <leafValues>
            6.8085104227066040e-01 -5.2868854999542236e-01</leafValues></_>
        <_>
          <internalNodes>
            0 -1 13 -4.7054193913936615e-02</internalNodes>
          <leafValues>
            2.7983480691909790e-01 -8.6541503667831421e-01</leafValues></_>
        <_>
          <internalNodes>
            0 -1 54 4.6568959951400757e-03</internalNodes>
          <leafValues>
            1.8752020597457886e-01 -8.6783099174499512e-01</leafValues></_>
        <_>
          <internalNodes>
            0 -1 7 -1.9416978582739830e-02</internalNodes>
          <leafValues>
            1.8608416616916656e-01 -9.1571933031082153e-01</leafValues></_>
        <_>
          <internalNodes>
            0 -1 70 -2.7500338852405548e-02</internalNodes>
          <leafValues>
            5.6139045953750610e-01 -3.9904108643531799e-01</leafValues></_>
        <_>
          <internalNodes>
            0 -1 29 -1.5896502882242203e-03</internalNodes>
          <leafValues>
            5.5477708578109741e-01 -4.0426337718963623e-01</leafValues></_></weakClassifiers></_>
    <!-- stage 9 -->
    <_>
      <maxWeakCount>6</maxWeakCount>
      <stageThreshold>-9.4107049703598022e-01</stageThreshold>
      <weakClassifiers>
        <_>
          <internalNodes>
            0 -1 41 -6.3201829791069031e-02</internalNodes>
          <leafValues>
            1.5909090638160706e-01 -7.4213838577270508e-01</leafValues></_>
        <_>
          <internalNodes>
            0 -1 53 -1.7527258023619652e-03</internalNodes>
          <leafValues>
            -7.5303637981414795e-01 1.9897525012493134e-01</leafValues></_>
        <_>
          <internalNodes>
            0 -1 57 -3.3077569678425789e-03</internalNodes>
          <leafValues>
            -9.8153024911880493e-01 1.5194438397884369e-01</leafValues></_>
        <_>
          <internalNodes>
            0 -1 78 -2.2411663085222244e-02</internalNodes>
          <leafValues>
            3.7105661630630493e-01 -4.8537591099739075e-01</leafValues></_>
        <_>
          <internalNodes>
            0 -1 87 -6.5987864509224892e-03</internalNodes>
          <leafValues>
            8.0885934829711914e-01 -2.5265800952911377e-01</leafValues></_>
        <_>
          <internalNodes>
            0 -1 11 -1.4283908531069756e-02</internalNodes>
          <leafValues>
            2.9422006011009216e-01 -8.2255280017852783e-01</leafValues></_></weakClassifiers></_>
    <!-- stage 10 -->
    <_>
      <maxWeakCount>7</maxWeakCount>
      <stageThreshold>-1.1391419172286987e+00</stageThreshold>
      <weakClassifiers>
        <_>
          <internalNodes>
            0 -1 17 -3.3117905259132385e-03</internalNodes>
          <leafValues>
            5.9183675050735474e-01 -5.2066117525100708e-01</leafValues></_>
        <_>
          <internalNodes>
            0 -1 23 -1.3265922665596008e-01</internalNodes>
          <leafValues>
            2.5778415799140930e-01 -8.3804142475128174e-01</leafValues></_>
        <_>
          <internalNodes>
            0 -1 61 -5.5107879452407360e-03</internalNodes>
          <leafValues>
            2.1206517517566681e-01 -7.9711955785751343e-01</leafValues></_>
        <_>
          <internalNodes>
            0 -1 60 -4.4934311881661415e-03</internalNodes>
          <leafValues>
            3.8057342171669006e-01 -6.4070212841033936e-01</leafValues></_>
        <_>
          <internalNodes>
            0 -1 75 -2.0472367759793997e-03</internalNodes>
          <leafValues>
            6.3429725170135498e-01 -3.2481673359870911e-01</leafValues></_>
        <_>
          <internalNodes>
            0 -1 67 -1.6074483282864094e-03</internalNodes>
          <leafValues>
            2.7860951423645020e-01 -7.2566461563110352e-01</leafValues></_>
        <_>
          <internalNodes>
            0 -1 84 -3.3688632538542151e-04</internalNodes>
          <leafValues>
            6.5612334012985229e-01 -3.2687076926231384e-01</leafValues></_></weakClassifiers></_>
    <!-- stage 11 -->
    <_>
      <maxWeakCount>8</maxWeakCount>
      <stageThreshold>-1.1381381750106812e+00</stageThreshold>
      <weakClassifiers>
        <_>
          <internalNodes>
            0 -1 94 -2.2853665053844452e-02</internalNodes>
          <leafValues>
            6.3636362552642822e-01 -4.8118811845779419e-01</leafValues></_>
        <_>
          <internalNodes>
            0 -1 2 -2.9391092061996460e-01</internalNodes>
          <leafValues>
            3.6731261014938354e-01 -5.8095532655715942e-01</leafValues></_>
        <_>
          <internalNodes>
            0 -1 86 -1.5972036868333817e-02</internalNodes>
          <leafValues>
            4.0783432126045227e-01 -4.5267686247825623e-01</leafValues></_>
        <_>
          <internalNodes>
            0 -1 82 6.3322111964225769e-02</internalNodes>
          <leafValues>
            -3.6714115738868713e-01 4.9116700887680054e-01</leafValues></_>
        <_>
          <internalNodes>
            0 -1 30 -8.1081584095954895e-02</internalNodes>
          <leafValues>
            7.4902164936065674e-01 -2.2756251692771912e-01</leafValues></_>
        <_>
          <internalNodes>
            0 -1 14 -1.3075233437120914e-02</internalNodes>
          <leafValues>
            4.9106982350349426e-01 -4.1928729414939880e-01</leafValues></_>
        <_>
          <internalNodes>
            0 -1 46 3.6359752994030714e-04</internalNodes>
          <leafValues>
            -6.3414114713668823e-01 2.6635012030601501e-01</leafValues></_>
        <_>
          <internalNodes>
            0 -1 27 -6.4282333478331566e-03</internalNodes>
          <leafValues>
            -6.4654541015625000e-01 2.6384395360946655e-01</leafValues></_></weakClassifiers></_>
    <!-- stage 12 -->
    <_>
      <maxWeakCount>7</maxWeakCount>
      <stageThreshold>-1.1317017078399658e+00</stageThreshold>
      <weakClassifiers>
        <_>
          <internalNodes>
            0 -1 85 -1.9680853933095932e-02</internalNodes>
          <leafValues>
            5.2083331346511841e-01 -5.0205761194229126e-01</leafValues></_>
        <_>
          <internalNodes>
            0 -1 40 1.0320343077182770e-01</internalNodes>
          <leafValues>
            -9.0090847015380859e-01 1.5841750800609589e-01</leafValues></_>
        <_>
          <internalNodes>
            0 -1 21 -4.4368170201778412e-02</internalNodes>
          <leafValues>
            6.4538180828094482e-01 -2.9862231016159058e-01</leafValues></_>
        <_>
          <internalNodes>
            0 -1 51 -8.9955087751150131e-03</internalNodes>
          <leafValues>
            -9.3434786796569824e-01 2.5057569146156311e-01</leafValues></_>
        <_>
          <internalNodes>
            0 -1 47 -1.2310831807553768e-03</internalNodes>
          <leafValues>
            2.7020874619483948e-01 -5.8069962263107300e-01</leafValues></_>
        <_>
          <internalNodes>
            0 -1 90 -1.2585576769197360e-05</internalNodes>
          <leafValues>
            6.8542683124542236e-01 -2.9612618684768677e-01</leafValues></_>
        <_>
          <internalNodes>
            0 -1 26 -7.0357555523514748e-04</internalNodes>
          <leafValues>
            -6.6912567615509033e-01 2.9884350299835205e-01</leafValues></_></weakClassifiers></_>
    <!-- stage 13 -->
    <_>
      <maxWeakCount>10</maxWeakCount>
      <stageThreshold>-8.9245826005935669e-01</stageThreshold>
      <weakClassifiers>
        <_>
          <internalNodes>
            0 -1 8 2.1596238948404789e-03</internalNodes>
          <leafValues>
            -4.4404330849647522e-01 4.1818180680274963e-01</leafValues></_>
        <_>
          <internalNodes>
            0 -1 55 3.3280616626143456e-03</internalNodes>
          <leafValues>
            2.1480837464332581e-01 -7.9165220260620117e-01</leafValues></_>
        <_>
          <internalNodes>
            0 -1 81 -1.6050841659307480e-02</internalNodes>
          <leafValues>
            2.3837469518184662e-01 -6.7743927240371704e-01</leafValues></_>
        <_>
          <internalNodes>
            0 -1 36 -1.2806095182895660e-03</internalNodes>
          <leafValues>
            2.1316574513912201e-01 -7.9453974962234497e-01</leafValues></_>
        <_>
          <internalNodes>
            0 -1 59 -1.8535845447331667e-04</internalNodes>
          <leafValues>
            6.4106458425521851e-01 -3.1855872273445129e-01</leafValues></_>
        <_>
          <internalNodes>
            0 -1 18 -7.6712965965270996e-03</internalNodes>
          <leafValues>
            2.3624493181705475e-01 -6.7336481809616089e-01</leafValues></_>
        <_>
          <internalNodes>
            0 -1 91 -3.1386640330310911e-05</internalNodes>
          <leafValues>
            6.5361225605010986e-01 -3.0456030368804932e-01</leafValues></_>
        <_>
          <internalNodes>
            0 -1 72 -7.4507627869024873e-04</internalNodes>
          <leafValues>
            -8.3341103792190552e-01 2.7865937352180481e-01</leafValues></_>
        <_>
          <internalNodes>
            0 -1 77 -7.2846351031330414e-06</internalNodes>
          <leafValues>
            4.5711499452590942e-01 -4.3993601202964783e-01</leafValues></_>
        <_>
          <internalNodes>
            0 -1 64 -1.4517563977278769e-04</internalNodes>
          <leafValues>
            5.9904617071151733e-01 -3.2799127697944641e-01</leafValues></_></weakClassifiers></_>
    <!-- stage 14 -->
    <_>
      <maxWeakCount>6</maxWeakCount>
      <stageThreshold>-3.2717171311378479e-01</stageThreshold>
      <weakClassifiers>
        <_>
          <internalNodes>
            0 -1 63 -9.1850049793720245e-03</internalNodes>
          <leafValues>
            -9.0909093618392944e-01 4.1176471114158630e-01</leafValues></_>
        <_>
          <internalNodes>
            0 -1 20 -1.1054031550884247e-01</internalNodes>
          <leafValues>
            2.3969517648220062e-01 -8.1999140977859497e-01</leafValues></_>
        <_>
          <internalNodes>
            0 -1 37 -3.5203915089368820e-02</internalNodes>
          <leafValues>
            -7.9640156030654907e-01 1.9355955719947815e-01</leafValues></_>
        <_>
          <internalNodes>
            0 -1 42 -6.3680158928036690e-03</internalNodes>
          <leafValues>
            9.2423182725906372e-01 -2.4220603704452515e-01</leafValues></_>
        <_>
          <internalNodes>
            0 -1 33 -1.3613922055810690e-03</internalNodes>
          <leafValues>
            7.0345318317413330e-01 -3.1970161199569702e-01</leafValues></_>
        <_>
          <internalNodes>
            0 -1 24 -4.3145203962922096e-03</internalNodes>
          <leafValues>
            6.3969212770462036e-01 -3.1258267164230347e-01</leafValues></_></weakClassifiers></_>
    <!-- stage 15 -->
    <_>
      <maxWeakCount>6</maxWeakCount>
      <stageThreshold>-7.9068237543106079e-01</stageThreshold>
      <weakClassifiers>
        <_>
          <internalNodes>
            0 -1 73 6.5639048814773560e-02</internalNodes>
          <leafValues>
            -7.1428573131561279e-01 7.2727274894714355e-01</leafValues></_>
        <_>
          <internalNodes>
            0 -1 58 3.6611570976674557e-03</internalNodes>
          <leafValues>
            4.7926384210586548e-01 -7.5046050548553467e-01</leafValues></_>
        <_>
          <internalNodes>
            0 -1 68 2.2234626114368439e-02</internalNodes>
          <leafValues>
            -5.9070318937301636e-01 4.9025326967239380e-01</leafValues></_>
        <_>
          <internalNodes>
            0 -1 3 1.4496253570541739e-03</internalNodes>
          <leafValues>
            -5.8868443965911865e-01 5.2992713451385498e-01</leafValues></_>
        <_>
          <internalNodes>
            0 -1 93 7.7526498353108764e-04</internalNodes>
          <leafValues>
            -3.3115178346633911e-01 8.5886311531066895e-01</leafValues></_>
        <_>
          <internalNodes>
            0 -1 34 1.0336950253986288e-05</internalNodes>
          <leafValues>
            -4.8667952418327332e-01 6.8082642555236816e-01</leafValues></_></weakClassifiers></_>
    <!-- stage 16 -->
    <_>
      <maxWeakCount>6</maxWeakCount>
      <stageThreshold>2.9587769508361816e-01</stageThreshold>
      <weakClassifiers>
        <_>
          <internalNodes>
            0 -1 32 6.8212077021598816e-02</internalNodes>
          <leafValues>
            6.4406782388687134e-01 -1.</leafValues></_>
        <_>
          <internalNodes>
            0 -1 74 -2.3922275431687012e-05</internalNodes>
          <leafValues>
            1. -1.5683235228061676e-01</leafValues></_>
        <_>
          <internalNodes>
            0 -1 48 2.6760906621348113e-05</internalNodes>
          <leafValues>
            -3.0144727230072021e-01 7.7877408266067505e-01</leafValues></_>
        <_>
          <internalNodes>
            0 -1 28 -9.5330715339514427e-06</internalNodes>
          <leafValues>
            7.5473457574844360e-01 -3.1749069690704346e-01</leafValues></_>
        <_>
          <internalNodes>
            0 -1 88 -8.3188606367912143e-06</internalNodes>
          <leafValues>
            7.7770304679870605e-01 -3.4774902462959290e-01</leafValues></_>
        <_>
          <internalNodes>
            0 -1 76 -3.5370036493986845e-04</internalNodes>
          <leafValues>
            9.0372240543365479e-01 -2.9689601063728333e-01</leafValues></_></weakClassifiers></_></stages>
  <features>
    <_>
      <rects>
        <_>
          0 0 14 39 -1.</_>
        <_>
          7 0 7 39 2.</_></rects>
      <tilted>0</tilted></_>
    <_>
      <rects>
        <_>
          0 0 30 25 -1.</_>
        <_>
          10 0 10 25 3.</_></rects>
      <tilted>0</tilted></_>
    <_>
      <rects>
        <_>
          0 0 30 26 -1.</_>
        <_>
          10 0 10 26 3.</_></rects>
      <tilted>0</tilted></_>
    <_>
      <rects>
        <_>
          0 1 3 22 -1.</_>
        <_>
          0 12 3 11 2.</_></rects>
      <tilted>0</tilted></_>
    <_>
      <rects>
        <_>
          0 1 6 36 -1.</_>
        <_>
          0 1 3 18 2.</_>
        <_>
          3 19 3 18 2.</_></rects>
      <tilted>0</tilted></_>
    <_>
      <rects>
        <_>
          0 1 30 37 -1.</_>
        <_>
          10 1 10 37 3.</_></rects>
      <tilted>0</tilted></_>
    <_>
      <rects>
        <_>
          0 4 10 32 -1.</_>
        <_>
          5 4 5 32 2.</_></rects>
      <tilted>0</tilted></_>
    <_>
      <rects>
        <_>
          0 12 16 10 -1.</_>
        <_>
          8 12 8 10 2.</_></rects>
      <tilted>0</tilted></_>
    <_>
      <rects>
        <_>
          0 15 3 24 -1.</_>
        <_>
          1 15 1 24 3.</_></rects>
      <tilted>0</tilted></_>
    <_>
      <rects>
        <_>
          0 23 15 12 -1.</_>
        <_>
          5 23 5 12 3.</_></rects>
      <tilted>0</tilted></_>
    <_>
      <rects>
        <_>
          0 24 8 13 -1.</_>
        <_>
          4 24 4 13 2.</_></rects>
      <tilted>0</tilted></_>
    <_>
      <rects>
        <_>
          0 24 15 15 -1.</_>
        <_>
          5 24 5 15 3.</_></rects>
      <tilted>0</tilted></_>
    <_>
      <rects>
        <_>
          0 29 12 3 -1.</_>
        <_>
          4 29 4 3 3.</_></rects>
      <tilted>0</tilted></_>
    <_>
      <rects>
        <_>
          0 30 27 9 -1.</_>
        <_>
          9 30 9 9 3.</_></rects>
      <tilted>0</tilted></_>
    <_>
      <rects>
        <_>
          0 31 12 4 -1.</_>
        <_>
          4 31 4 4 3.</_></rects>
      <tilted>0</tilted></_>
    <_>
      <rects>
        <_>
          0 31 8 10 -1.</_>
        <_>
          0 31 4 5 2.</_>
        <_>
          4 36 4 5 2.</_></rects>
      <tilted>0</tilted></_>
    <_>
      <rects>
        <_>
          1 0 10 40 -1.</_>
        <_>
          6 0 5 40 2.</_></rects>
      <tilted>0</tilted></_>
    <_>
      <rects>
        <_>
          1 31 6 2 -1.</_>
        <_>
          3 31 2 2 3.</_></rects>
      <tilted>0</tilted></_>
    <_>
      <rects>
        <_>
          2 4 12 7 -1.</_>
        <_>
          8 4 6 7 2.</_></rects>
      <tilted>0</tilted></_>
    <_>
      <rects>
        <_>
          2 8 30 33 -1.</_>
        <_>
          2 19 30 11 3.</_></rects>
      <tilted>0</tilted></_>
    <_>
      <rects>
        <_>
          2 14 27 27 -1.</_>
        <_>
          2 23 27 9 3.</_></rects>
      <tilted>0</tilted></_>
    <_>
      <rects>
        <_>
          2 17 4 21 -1.</_>
        <_>
          2 24 4 7 3.</_></rects>
      <tilted>0</tilted></_>
    <_>
      <rects>
        <_>
          2 17 27 24 -1.</_>
        <_>
          2 25 27 8 3.</_></rects>
      <tilted>0</tilted></_>
    <_>
      <rects>
        <_>
          2 23 30 18 -1.</_>
        <_>
          12 23 10 18 3.</_></rects>
      <tilted>0</tilted></_>
    <_>
      <rects>
        <_>
          2 30 6 5 -1.</_>
        <_>
          4 30 2 5 3.</_></rects>
      <tilted>0</tilted></_>
    <_>
      <rects>
        <_>
          2 35 21 6 -1.</_>
        <_>
          2 37 21 2 3.</_></rects>
      <tilted>0</tilted></_>
    <_>
      <rects>
        <_>
          2 38 4 1 -1.</_>
        <_>
          4 38 2 1 2.</_></rects>
      <tilted>0</tilted></_>
    <_>
      <rects>
        <_>
          2 38 10 3 -1.</_>
        <_>
          7 38 5 3 2.</_></rects>
      <tilted>0</tilted></_>
    <_>
      <rects>
        <_>
          2 39 6 2 -1.</_>
        <_>
          2 39 3 1 2.</_>
        <_>
          5 40 3 1 2.</_></rects>
      <tilted>0</tilted></_>
    <_>
      <rects>
        <_>
          2 39 21 2 -1.</_>
        <_>
          2 40 21 1 2.</_></rects>
      <tilted>0</tilted></_>
    <_>
      <rects>
        <_>
          3 10 5 30 -1.</_>
        <_>
          3 20 5 10 3.</_></rects>
      <tilted>0</tilted></_>
    <_>
      <rects>
        <_>
          3 13 26 14 -1.</_>
        <_>
          3 20 26 7 2.</_></rects>
      <tilted>0</tilted></_>
    <_>
      <rects>
        <_>
          4 4 23 18 -1.</_>
        <_>
          4 10 23 6 3.</_></rects>
      <tilted>0</tilted></_>
    <_>
      <rects>
        <_>
          4 37 5 4 -1.</_>
        <_>
          4 39 5 2 2.</_></rects>
      <tilted>0</tilted></_>
    <_>
      <rects>
        <_>
          5 15 10 2 -1.</_>
        <_>
          5 15 5 1 2.</_>
        <_>
          10 16 5 1 2.</_></rects>
      <tilted>0</tilted></_>
    <_>
      <rects>
        <_>
          5 34 23 6 -1.</_>
        <_>
          5 37 23 3 2.</_></rects>
      <tilted>0</tilted></_>
    <_>
      <rects>
        <_>
          6 5 19 22 -1.</_>
        <_>
          6 16 19 11 2.</_></rects>
      <tilted>0</tilted></_>
    <_>
      <rects>
        <_>
          6 5 22 10 -1.</_>
        <_>
          6 10 22 5 2.</_></rects>
      <tilted>0</tilted></_>
    <_>
      <rects>
        <_>
          6 29 20 12 -1.</_>
        <_>
          6 35 20 6 2.</_></rects>
      <tilted>0</tilted></_>
    <_>
      <rects>
        <_>
          6 36 20 4 -1.</_>
        <_>
          6 38 20 2 2.</_></rects>
      <tilted>0</tilted></_>
    <_>
      <rects>
        <_>
          8 19 24 21 -1.</_>
        <_>
          20 19 12 21 2.</_></rects>
      <tilted>0</tilted></_>
    <_>
      <rects>
        <_>
          8 26 19 15 -1.</_>
        <_>
          8 31 19 5 3.</_></rects>
      <tilted>0</tilted></_>
    <_>
      <rects>
        <_>
          8 35 7 6 -1.</_>
        <_>
          8 37 7 2 3.</_></rects>
      <tilted>0</tilted></_>
    <_>
      <rects>
        <_>
          9 2 6 30 -1.</_>
        <_>
          9 12 6 10 3.</_></rects>
      <tilted>0</tilted></_>
    <_>
      <rects>
        <_>
          9 31 18 10 -1.</_>
        <_>
          9 36 18 5 2.</_></rects>
      <tilted>0</tilted></_>
    <_>
      <rects>
        <_>
          9 32 16 9 -1.</_>
        <_>
          9 35 16 3 3.</_></rects>
      <tilted>0</tilted></_>
    <_>
      <rects>
        <_>
          10 0 22 2 -1.</_>
        <_>
          21 0 11 2 2.</_></rects>
      <tilted>0</tilted></_>
    <_>
      <rects>
        <_>
          10 3 4 30 -1.</_>
        <_>
          10 13 4 10 3.</_></rects>
      <tilted>0</tilted></_>
    <_>
      <rects>
        <_>
          10 19 2 4 -1.</_>
        <_>
          10 21 2 2 2.</_></rects>
      <tilted>0</tilted></_>
    <_>
      <rects>
        <_>
          10 26 15 15 -1.</_>
        <_>
          10 31 15 5 3.</_></rects>
      <tilted>0</tilted></_>
    <_>
      <rects>
        <_>
          10 27 6 6 -1.</_>
        <_>
          13 27 3 6 2.</_></rects>
      <tilted>0</tilted></_>
    <_>
      <rects>
        <_>
          11 30 9 11 -1.</_>
        <_>
          14 30 3 11 3.</_></rects>
      <tilted>0</tilted></_>
    <_>
      <rects>
        <_>
          12 6 20 34 -1.</_>
        <_>
          22 6 10 34 2.</_></rects>
      <tilted>0</tilted></_>
    <_>
      <rects>
        <_>
          12 7 1 34 -1.</_>
        <_>
          12 24 1 17 2.</_></rects>
      <tilted>0</tilted></_>
    <_>
      <rects>
        <_>
          12 17 6 18 -1.</_>
        <_>
          15 17 3 18 2.</_></rects>
      <tilted>0</tilted></_>
    <_>
      <rects>
        <_>
          12 23 4 18 -1.</_>
        <_>
          14 23 2 18 2.</_></rects>
      <tilted>0</tilted></_>
    <_>
      <rects>
        <_>
          13 12 2 24 -1.</_>
        <_>
          13 20 2 8 3.</_></rects>
      <tilted>0</tilted></_>
    <_>
      <rects>
        <_>
          13 22 4 16 -1.</_>
        <_>
          15 22 2 16 2.</_></rects>
      <tilted>0</tilted></_>
    <_>
      <rects>
        <_>
          13 31 9 4 -1.</_>
        <_>
          13 33 9 2 2.</_></rects>
      <tilted>0</tilted></_>
    <_>
      <rects>
        <_>
          13 39 2 2 -1.</_>
        <_>
          13 40 2 1 2.</_></rects>
      <tilted>0</tilted></_>
    <_>
      <rects>
        <_>
          14 15 14 16 -1.</_>
        <_>
          14 15 7 8 2.</_>
        <_>
          21 23 7 8 2.</_></rects>
      <tilted>0</tilted></_>
    <_>
      <rects>
        <_>
          14 17 3 24 -1.</_>
        <_>
          14 25 3 8 3.</_></rects>
      <tilted>0</tilted></_>
    <_>
      <rects>
        <_>
          14 27 18 8 -1.</_>
        <_>
          20 27 6 8 3.</_></rects>
      <tilted>0</tilted></_>
    <_>
      <rects>
        <_>
          14 30 9 10 -1.</_>
        <_>
          17 30 3 10 3.</_></rects>
      <tilted>0</tilted></_>
    <_>
      <rects>
        <_>
          16 2 4 2 -1.</_>
        <_>
          16 2 2 1 2.</_>
        <_>
          18 3 2 1 2.</_></rects>
      <tilted>0</tilted></_>
    <_>
      <rects>
        <_>
          16 10 16 14 -1.</_>
        <_>
          24 10 8 14 2.</_></rects>
      <tilted>0</tilted></_>
    <_>
      <rects>
        <_>
          16 13 16 25 -1.</_>
        <_>
          24 13 8 25 2.</_></rects>
      <tilted>0</tilted></_>
    <_>
      <rects>
        <_>
          16 26 1 15 -1.</_>
        <_>
          16 31 1 5 3.</_></rects>
      <tilted>0</tilted></_>
    <_>
      <rects>
        <_>
          17 0 12 13 -1.</_>
        <_>
          23 0 6 13 2.</_></rects>
      <tilted>0</tilted></_>
    <_>
      <rects>
        <_>
          17 10 12 20 -1.</_>
        <_>
          17 10 6 10 2.</_>
        <_>
          23 20 6 10 2.</_></rects>
      <tilted>0</tilted></_>
    <_>
      <rects>
        <_>
          17 27 15 5 -1.</_>
        <_>
          22 27 5 5 3.</_></rects>
      <tilted>0</tilted></_>
    <_>
      <rects>
        <_>
          18 26 14 15 -1.</_>
        <_>
          25 26 7 15 2.</_></rects>
      <tilted>0</tilted></_>
    <_>
      <rects>
        <_>
          18 29 2 12 -1.</_>
        <_>
          19 29 1 12 2.</_></rects>
      <tilted>0</tilted></_>
    <_>
      <rects>
        <_>
          19 12 12 25 -1.</_>
        <_>
          25 12 6 25 2.</_></rects>
      <tilted>0</tilted></_>
    <_>
      <rects>
        <_>
          19 18 2 3 -1.</_>
        <_>
          20 18 1 3 2.</_></rects>
      <tilted>0</tilted></_>
    <_>
      <rects>
        <_>
          19 18 9 1 -1.</_>
        <_>
          22 18 3 1 3.</_></rects>
      <tilted>0</tilted></_>
    <_>
      <rects>
        <_>
          20 10 3 2 -1.</_>
        <_>
          21 10 1 2 3.</_></rects>
      <tilted>0</tilted></_>
    <_>
      <rects>
        <_>
          20 23 2 7 -1.</_>
        <_>
          21 23 1 7 2.</_></rects>
      <tilted>0</tilted></_>
    <_>
      <rects>
        <_>
          20 29 12 12 -1.</_>
        <_>
          20 29 6 6 2.</_>
        <_>
          26 35 6 6 2.</_></rects>
      <tilted>0</tilted></_>
    <_>
      <rects>
        <_>
          22 17 10 20 -1.</_>
        <_>
          27 17 5 20 2.</_></rects>
      <tilted>0</tilted></_>
    <_>
      <rects>
        <_>
          22 19 10 18 -1.</_>
        <_>
          27 19 5 18 2.</_></rects>
      <tilted>0</tilted></_>
    <_>
      <rects>
        <_>
          22 22 4 18 -1.</_>
        <_>
          22 28 4 6 3.</_></rects>
      <tilted>0</tilted></_>
    <_>
      <rects>
        <_>
          22 22 10 10 -1.</_>
        <_>
          27 22 5 10 2.</_></rects>
      <tilted>0</tilted></_>
    <_>
      <rects>
        <_>
          22 28 10 12 -1.</_>
        <_>
          22 28 5 6 2.</_>
        <_>
          27 34 5 6 2.</_></rects>
      <tilted>0</tilted></_>
    <_>
      <rects>
        <_>
          23 3 2 4 -1.</_>
        <_>
          23 3 1 2 2.</_>
        <_>
          24 5 1 2 2.</_></rects>
      <tilted>0</tilted></_>
    <_>
      <rects>
        <_>
          23 21 9 7 -1.</_>
        <_>
          26 21 3 7 3.</_></rects>
      <tilted>0</tilted></_>
    <_>
      <rects>
        <_>
          23 26 4 15 -1.</_>
        <_>
          23 31 4 5 3.</_></rects>
      <tilted>0</tilted></_>
    <_>
      <rects>
        <_>
          23 27 9 2 -1.</_>
        <_>
          26 27 3 2 3.</_></rects>
      <tilted>0</tilted></_>
    <_>
      <rects>
        <_>
          24 6 2 1 -1.</_>
        <_>
          25 6 1 1 2.</_></rects>
      <tilted>0</tilted></_>
    <_>
      <rects>
        <_>
          24 26 8 9 -1.</_>
        <_>
          28 26 4 9 2.</_></rects>
      <tilted>0</tilted></_>
    <_>
      <rects>
        <_>
          24 32 2 1 -1.</_>
        <_>
          25 32 1 1 2.</_></rects>
      <tilted>0</tilted></_>
    <_>
      <rects>
        <_>
          25 25 2 1 -1.</_>
        <_>
          26 25 1 1 2.</_></rects>
      <tilted>0</tilted></_>
    <_>
      <rects>
        <_>
          25 25 2 15 -1.</_>
        <_>
          25 30 2 5 3.</_></rects>
      <tilted>0</tilted></_>
    <_>
      <rects>
        <_>
          26 31 5 2 -1.</_>
        <_>
          26 32 5 1 2.</_></rects>
      <tilted>0</tilted></_>
    <_>
      <rects>
        <_>
          27 12 1 27 -1.</_>
        <_>
          27 21 1 9 3.</_></rects>
      <tilted>0</tilted></_></features></cascade>
</opencv_storage>
