<?xml version="1.0"?>
<opencv_storage>
<!-- Created using Computer Vision System Toolbox(tm) for MATLAB(R) -->
<!-- Version 9.4.0.902940 (R2018a) Update 4 -->
<!-- Compatible with OpenCV 3.1 -->
<cascade>
  <stageType>BOOST</stageType>
  <featureType>HAAR</featureType>
  <height>36</height>
  <width>32</width>
  <stageParams>
    <boostType>GAB</boostType>
    <minHitRate>9.9500000476837158e-01</minHitRate>
    <maxFalseAlarm>4.0000000596046448e-01</maxFalseAlarm>
    <weightTrimRate>9.4999999999999996e-01</weightTrimRate>
    <maxDepth>1</maxDepth>
    <maxWeakCount>100</maxWeakCount></stageParams>
  <featureParams>
    <maxCatCount>0</maxCatCount>
    <featSize>1</featSize>
    <mode>BASIC</mode></featureParams>
  <stageNum>15</stageNum>
  <stages>
    <!-- stage 0 -->
    <_>
      <maxWeakCount>3</maxWeakCount>
      <stageThreshold>-1.2105993032455444e+00</stageThreshold>
      <weakClassifiers>
        <_>
          <internalNodes>
            0 -1 15 -3.4113425016403198e-01</internalNodes>
          <leafValues>
            8.9162564277648926e-01 -9.5786058902740479e-01</leafValues></_>
        <_>
          <internalNodes>
            0 -1 8 -5.3198479115962982e-02</internalNodes>
          <leafValues>
            6.3688451051712036e-01 -8.8551616668701172e-01</leafValues></_>
        <_>
          <internalNodes>
            0 -1 64 9.4444304704666138e-02</internalNodes>
          <leafValues>
            -8.8962316513061523e-01 6.6363543272018433e-01</leafValues></_></weakClassifiers></_>
    <!-- stage 1 -->
    <_>
      <maxWeakCount>5</maxWeakCount>
      <stageThreshold>-1.3944020271301270e+00</stageThreshold>
      <weakClassifiers>
        <_>
          <internalNodes>
            0 -1 2 -3.8362151384353638e-01</internalNodes>
          <leafValues>
            6.4220184087753296e-01 -9.1362124681472778e-01</leafValues></_>
        <_>
          <internalNodes>
            0 -1 33 2.7837496250867844e-02</internalNodes>
          <leafValues>
            -6.6640263795852661e-01 7.0365488529205322e-01</leafValues></_>
        <_>
          <internalNodes>
            0 -1 3 -1.9978901743888855e-01</internalNodes>
          <leafValues>
            6.5232920646667480e-01 -6.4421075582504272e-01</leafValues></_>
        <_>
          <internalNodes>
            0 -1 72 5.5045825429260731e-03</internalNodes>
          <leafValues>
            -8.3909928798675537e-01 4.5629537105560303e-01</leafValues></_>
        <_>
          <internalNodes>
            0 -1 20 -2.0185774564743042e-01</internalNodes>
          <leafValues>
            3.7353724241256714e-01 -7.2919803857803345e-01</leafValues></_></weakClassifiers></_>
    <!-- stage 2 -->
    <_>
      <maxWeakCount>5</maxWeakCount>
      <stageThreshold>-7.8662693500518799e-01</stageThreshold>
      <weakClassifiers>
        <_>
          <internalNodes>
            0 -1 1 -4.4778516888618469e-01</internalNodes>
          <leafValues>
            4.3478259444236755e-01 -7.7044028043746948e-01</leafValues></_>
        <_>
          <internalNodes>
            0 -1 9 -3.5670757293701172e-02</internalNodes>
          <leafValues>
            3.9716145396232605e-01 -8.0881536006927490e-01</leafValues></_>
        <_>
          <internalNodes>
            0 -1 67 1.2543842196464539e-01</internalNodes>
          <leafValues>
            -7.7771544456481934e-01 3.2736957073211670e-01</leafValues></_>
        <_>
          <internalNodes>
            0 -1 49 -9.4593055546283722e-03</internalNodes>
          <leafValues>
            -9.3348354101181030e-01 2.3290048539638519e-01</leafValues></_>
        <_>
          <internalNodes>
            0 -1 44 -5.5571161210536957e-03</internalNodes>
          <leafValues>
            -9.8576229810714722e-01 2.3235861957073212e-01</leafValues></_></weakClassifiers></_>
    <!-- stage 3 -->
    <_>
      <maxWeakCount>5</maxWeakCount>
      <stageThreshold>-1.9343177080154419e+00</stageThreshold>
      <weakClassifiers>
        <_>
          <internalNodes>
            0 -1 10 2.6777992025017738e-02</internalNodes>
          <leafValues>
            -7.4068069458007813e-01 2.3152709007263184e-01</leafValues></_>
        <_>
          <internalNodes>
            0 -1 4 -3.7644332647323608e-01</internalNodes>
          <leafValues>
            2.8694689273834229e-01 -7.8199845552444458e-01</leafValues></_>
        <_>
          <internalNodes>
            0 -1 95 8.5264873632695526e-06</internalNodes>
          <leafValues>
            -4.8392781615257263e-01 6.5439432859420776e-01</leafValues></_>
        <_>
          <internalNodes>
            0 -1 6 7.7629147199331783e-06</internalNodes>
          <leafValues>
            -4.4275581836700439e-01 6.1363518238067627e-01</leafValues></_>
        <_>
          <internalNodes>
            0 -1 22 -6.9946520030498505e-02</internalNodes>
          <leafValues>
            4.3798321485519409e-01 -6.2327706813812256e-01</leafValues></_></weakClassifiers></_>
    <!-- stage 4 -->
    <_>
      <maxWeakCount>6</maxWeakCount>
      <stageThreshold>-1.2182753086090088e+00</stageThreshold>
      <weakClassifiers>
        <_>
          <internalNodes>
            0 -1 13 -5.1463258266448975e-01</internalNodes>
          <leafValues>
            3.2203391194343567e-01 -7.2628307342529297e-01</leafValues></_>
        <_>
          <internalNodes>
            0 -1 29 4.2438946664333344e-02</internalNodes>
          <leafValues>
            -4.2383694648742676e-01 6.9563138484954834e-01</leafValues></_>
        <_>
          <internalNodes>
            0 -1 19 -8.2794308662414551e-02</internalNodes>
          <leafValues>
            3.6977350711822510e-01 -6.7681217193603516e-01</leafValues></_>
        <_>
          <internalNodes>
            0 -1 46 9.7116723656654358e-02</internalNodes>
          <leafValues>
            -7.2987872362136841e-01 2.8439748287200928e-01</leafValues></_>
        <_>
          <internalNodes>
            0 -1 25 6.1168029904365540e-02</internalNodes>
          <leafValues>
            -2.7316927909851074e-01 8.2246637344360352e-01</leafValues></_>
        <_>
          <internalNodes>
            0 -1 27 -6.3214465975761414e-02</internalNodes>
          <leafValues>
            5.9742867946624756e-01 -4.1621509194374084e-01</leafValues></_></weakClassifiers></_>
    <!-- stage 5 -->
    <_>
      <maxWeakCount>4</maxWeakCount>
      <stageThreshold>-7.5363045930862427e-01</stageThreshold>
      <weakClassifiers>
        <_>
          <internalNodes>
            0 -1 14 -3.7672966718673706e-01</internalNodes>
          <leafValues>
            -1.1792452633380890e-01 -9.0909093618392944e-01</leafValues></_>
        <_>
          <internalNodes>
            0 -1 35 3.9610909298062325e-03</internalNodes>
          <leafValues>
            9.6216380596160889e-02 -9.4403463602066040e-01</leafValues></_>
        <_>
          <internalNodes>
            0 -1 41 4.8760552890598774e-03</internalNodes>
          <leafValues>
            1.1005231738090515e-01 -9.7922503948211670e-01</leafValues></_>
        <_>
          <internalNodes>
            0 -1 42 -4.3045002967119217e-03</internalNodes>
          <leafValues>
            -8.4197461605072021e-01 3.1362286210060120e-01</leafValues></_></weakClassifiers></_>
    <!-- stage 6 -->
    <_>
      <maxWeakCount>7</maxWeakCount>
      <stageThreshold>-9.8123043775558472e-01</stageThreshold>
      <weakClassifiers>
        <_>
          <internalNodes>
            0 -1 26 2.1079104393720627e-02</internalNodes>
          <leafValues>
            -7.0562767982482910e-01 6.2204724550247192e-01</leafValues></_>
        <_>
          <internalNodes>
            0 -1 58 -5.5117015726864338e-03</internalNodes>
          <leafValues>
            6.3001811504364014e-01 -4.0698048472404480e-01</leafValues></_>
        <_>
          <internalNodes>
            0 -1 57 2.2724200971424580e-03</internalNodes>
          <leafValues>
            2.6415875554084778e-01 -7.9824268817901611e-01</leafValues></_>
        <_>
          <internalNodes>
            0 -1 90 -1.4675668353447691e-05</internalNodes>
          <leafValues>
            5.8966642618179321e-01 -3.5277616977691650e-01</leafValues></_>
        <_>
          <internalNodes>
            0 -1 63 7.7189051080495119e-04</internalNodes>
          <leafValues>
            -7.8226381540298462e-01 3.1078913807868958e-01</leafValues></_>
        <_>
          <internalNodes>
            0 -1 81 1.4598691835999489e-02</internalNodes>
          <leafValues>
            -4.7600901126861572e-01 3.8686278462409973e-01</leafValues></_>
        <_>
          <internalNodes>
            0 -1 93 -1.5629600966349244e-05</internalNodes>
          <leafValues>
            6.1539620161056519e-01 -3.3476129174232483e-01</leafValues></_></weakClassifiers></_>
    <!-- stage 7 -->
    <_>
      <maxWeakCount>7</maxWeakCount>
      <stageThreshold>-1.1738075017929077e+00</stageThreshold>
      <weakClassifiers>
        <_>
          <internalNodes>
            0 -1 16 -3.4792713820934296e-02</internalNodes>
          <leafValues>
            2.3636363446712494e-01 -6.8549621105194092e-01</leafValues></_>
        <_>
          <internalNodes>
            0 -1 45 -4.7201868146657944e-03</internalNodes>
          <leafValues>
            -9.1394972801208496e-01 1.2445046007633209e-01</leafValues></_>
        <_>
          <internalNodes>
            0 -1 71 2.2260777652263641e-02</internalNodes>
          <leafValues>
            -3.2289010286331177e-01 7.0381873846054077e-01</leafValues></_>
        <_>
          <internalNodes>
            0 -1 52 -1.0007635690271854e-02</internalNodes>
          <leafValues>
            6.5084880590438843e-01 -3.0237266421318054e-01</leafValues></_>
        <_>
          <internalNodes>
            0 -1 39 7.7621349191758782e-05</internalNodes>
          <leafValues>
            -6.5851390361785889e-01 3.3470469713211060e-01</leafValues></_>
        <_>
          <internalNodes>
            0 -1 86 -7.1473527896159794e-06</internalNodes>
          <leafValues>
            6.3866740465164185e-01 -3.0695006251335144e-01</leafValues></_>
        <_>
          <internalNodes>
            0 -1 60 4.9631120637059212e-03</internalNodes>
          <leafValues>
            2.4016234278678894e-01 -8.9711630344390869e-01</leafValues></_></weakClassifiers></_>
    <!-- stage 8 -->
    <_>
      <maxWeakCount>10</maxWeakCount>
      <stageThreshold>-1.2073169946670532e+00</stageThreshold>
      <weakClassifiers>
        <_>
          <internalNodes>
            0 -1 21 -6.8405671045184135e-03</internalNodes>
          <leafValues>
            3.5652172565460205e-01 -6.3971632719039917e-01</leafValues></_>
        <_>
          <internalNodes>
            0 -1 18 -5.7543188333511353e-02</internalNodes>
          <leafValues>
            2.0164412260055542e-01 -6.5579950809478760e-01</leafValues></_>
        <_>
          <internalNodes>
            0 -1 40 -4.4153031194582582e-04</internalNodes>
          <leafValues>
            2.0396287739276886e-01 -6.3929516077041626e-01</leafValues></_>
        <_>
          <internalNodes>
            0 -1 32 -1.9044313579797745e-02</internalNodes>
          <leafValues>
            -7.5342774391174316e-01 2.5874879956245422e-01</leafValues></_>
        <_>
          <internalNodes>
            0 -1 34 5.7040443643927574e-03</internalNodes>
          <leafValues>
            -3.2247039675712585e-01 5.7108080387115479e-01</leafValues></_>
        <_>
          <internalNodes>
            0 -1 0 -2.1020084619522095e-02</internalNodes>
          <leafValues>
            -9.0113240480422974e-01 1.9176991283893585e-01</leafValues></_>
        <_>
          <internalNodes>
            0 -1 51 1.9810238853096962e-02</internalNodes>
          <leafValues>
            -2.3060379922389984e-01 8.5668492317199707e-01</leafValues></_>
        <_>
          <internalNodes>
            0 -1 47 -4.8104431480169296e-03</internalNodes>
          <leafValues>
            6.3339084386825562e-01 -2.2221921384334564e-01</leafValues></_>
        <_>
          <internalNodes>
            0 -1 79 -3.8018871098756790e-02</internalNodes>
          <leafValues>
            5.3203845024108887e-01 -2.7110695838928223e-01</leafValues></_>
        <_>
          <internalNodes>
            0 -1 91 -1.5719899238320068e-05</internalNodes>
          <leafValues>
            4.8011758923530579e-01 -3.1927460432052612e-01</leafValues></_></weakClassifiers></_>
    <!-- stage 9 -->
    <_>
      <maxWeakCount>8</maxWeakCount>
      <stageThreshold>-9.1380745172500610e-01</stageThreshold>
      <weakClassifiers>
        <_>
          <internalNodes>
            0 -1 89 1.4544274657964706e-02</internalNodes>
          <leafValues>
            -6.0863697528839111e-01 5.1898735761642456e-01</leafValues></_>
        <_>
          <internalNodes>
            0 -1 30 4.3768907198682427e-04</internalNodes>
          <leafValues>
            -4.3767765164375305e-01 3.7143576145172119e-01</leafValues></_>
        <_>
          <internalNodes>
            0 -1 69 5.8366879820823669e-02</internalNodes>
          <leafValues>
            -9.0408343076705933e-01 1.8201783299446106e-01</leafValues></_>
        <_>
          <internalNodes>
            0 -1 50 -1.3488020747900009e-02</internalNodes>
          <leafValues>
            -7.8301376104354858e-01 1.9136570394039154e-01</leafValues></_>
        <_>
          <internalNodes>
            0 -1 88 1.5836860984563828e-03</internalNodes>
          <leafValues>
            1.4648076891899109e-01 -8.6790174245834351e-01</leafValues></_>
        <_>
          <internalNodes>
            0 -1 23 -5.0539951771497726e-03</internalNodes>
          <leafValues>
            1.7772835493087769e-01 -7.5606644153594971e-01</leafValues></_>
        <_>
          <internalNodes>
            0 -1 56 -4.5384303666651249e-03</internalNodes>
          <leafValues>
            -7.9064750671386719e-01 1.7580448091030121e-01</leafValues></_>
        <_>
          <internalNodes>
            0 -1 87 2.6784249348565936e-04</internalNodes>
          <leafValues>
            -3.4068965911865234e-01 5.0254994630813599e-01</leafValues></_></weakClassifiers></_>
    <!-- stage 10 -->
    <_>
      <maxWeakCount>8</maxWeakCount>
      <stageThreshold>-1.0346850156784058e+00</stageThreshold>
      <weakClassifiers>
        <_>
          <internalNodes>
            0 -1 76 -2.8113298118114471e-02</internalNodes>
          <leafValues>
            3.8823530077934265e-01 -6.0272109508514404e-01</leafValues></_>
        <_>
          <internalNodes>
            0 -1 83 -7.6990760862827301e-03</internalNodes>
          <leafValues>
            -9.4222807884216309e-01 8.9564040303230286e-02</leafValues></_>
        <_>
          <internalNodes>
            0 -1 68 -1.3855252414941788e-02</internalNodes>
          <leafValues>
            6.0586887598037720e-01 -2.8015944361686707e-01</leafValues></_>
        <_>
          <internalNodes>
            0 -1 97 -8.5439585382118821e-04</internalNodes>
          <leafValues>
            -8.0351024866104126e-01 2.3216693103313446e-01</leafValues></_>
        <_>
          <internalNodes>
            0 -1 36 -2.3199162387754768e-04</internalNodes>
          <leafValues>
            1.4960655570030212e-01 -7.4296635389328003e-01</leafValues></_>
        <_>
          <internalNodes>
            0 -1 65 -1.1297150194877759e-05</internalNodes>
          <leafValues>
            3.8906469941139221e-01 -3.8313004374504089e-01</leafValues></_>
        <_>
          <internalNodes>
            0 -1 80 -1.7252545803785324e-02</internalNodes>
          <leafValues>
            4.8483240604400635e-01 -2.9298260807991028e-01</leafValues></_>
        <_>
          <internalNodes>
            0 -1 54 -7.1914750151336193e-03</internalNodes>
          <leafValues>
            -9.6098840236663818e-01 1.6772849857807159e-01</leafValues></_></weakClassifiers></_>
    <!-- stage 11 -->
    <_>
      <maxWeakCount>8</maxWeakCount>
      <stageThreshold>-1.1288149356842041e+00</stageThreshold>
      <weakClassifiers>
        <_>
          <internalNodes>
            0 -1 11 2.3449197411537170e-02</internalNodes>
          <leafValues>
            -6.5298509597778320e-01 2.2831050679087639e-02</leafValues></_>
        <_>
          <internalNodes>
            0 -1 94 -1.3680665288120508e-03</internalNodes>
          <leafValues>
            -8.0278378725051880e-01 1.1965563148260117e-01</leafValues></_>
        <_>
          <internalNodes>
            0 -1 12 -2.1116388961672783e-03</internalNodes>
          <leafValues>
            -7.5806444883346558e-01 1.4092202484607697e-01</leafValues></_>
        <_>
          <internalNodes>
            0 -1 7 -5.6207112967967987e-02</internalNodes>
          <leafValues>
            1.9567157328128815e-01 -8.3280533552169800e-01</leafValues></_>
        <_>
          <internalNodes>
            0 -1 86 -1.5041134247439913e-05</internalNodes>
          <leafValues>
            5.4135161638259888e-01 -2.8900796175003052e-01</leafValues></_>
        <_>
          <internalNodes>
            0 -1 66 -7.8357597885769792e-06</internalNodes>
          <leafValues>
            4.5472726225852966e-01 -3.2575425505638123e-01</leafValues></_>
        <_>
          <internalNodes>
            0 -1 96 1.9205140415579081e-03</internalNodes>
          <leafValues>
            -2.4980504810810089e-01 5.4129356145858765e-01</leafValues></_>
        <_>
          <internalNodes>
            0 -1 37 -5.0300564616918564e-03</internalNodes>
          <leafValues>
            -9.7028428316116333e-01 1.5565855801105499e-01</leafValues></_></weakClassifiers></_>
    <!-- stage 12 -->
    <_>
      <maxWeakCount>8</maxWeakCount>
      <stageThreshold>-9.7536313533782959e-01</stageThreshold>
      <weakClassifiers>
        <_>
          <internalNodes>
            0 -1 43 3.8046680856496096e-03</internalNodes>
          <leafValues>
            -6.3313609361648560e-01 1.6498316824436188e-01</leafValues></_>
        <_>
          <internalNodes>
            0 -1 77 -7.1473527896159794e-06</internalNodes>
          <leafValues>
            5.4773396253585815e-01 -2.9037532210350037e-01</leafValues></_>
        <_>
          <internalNodes>
            0 -1 62 3.1503071077167988e-03</internalNodes>
          <leafValues>
            1.9640308618545532e-01 -8.0736035108566284e-01</leafValues></_>
        <_>
          <internalNodes>
            0 -1 85 2.3878846317529678e-02</internalNodes>
          <leafValues>
            -1.9827613234519958e-01 8.3940804004669189e-01</leafValues></_>
        <_>
          <internalNodes>
            0 -1 38 -1.6487061977386475e-02</internalNodes>
          <leafValues>
            7.5608605146408081e-01 -2.2264467179775238e-01</leafValues></_>
        <_>
          <internalNodes>
            0 -1 74 -7.8246736666187644e-04</internalNodes>
          <leafValues>
            6.4977616071701050e-01 -2.5096100568771362e-01</leafValues></_>
        <_>
          <internalNodes>
            0 -1 24 -8.9424557518213987e-04</internalNodes>
          <leafValues>
            7.8501439094543457e-01 -1.2324482947587967e-01</leafValues></_>
        <_>
          <internalNodes>
            0 -1 17 1.4346534953801893e-05</internalNodes>
          <leafValues>
            -2.7853998541831970e-01 5.4687184095382690e-01</leafValues></_></weakClassifiers></_>
    <!-- stage 13 -->
    <_>
      <maxWeakCount>8</maxWeakCount>
      <stageThreshold>-7.2644531726837158e-01</stageThreshold>
      <weakClassifiers>
        <_>
          <internalNodes>
            0 -1 53 8.2759434008039534e-05</internalNodes>
          <leafValues>
            -5.1162791252136230e-01 4.0540540218353271e-01</leafValues></_>
        <_>
          <internalNodes>
            0 -1 5 1.5891290968284011e-04</internalNodes>
          <leafValues>
            -3.5099896788597107e-01 4.7670716047286987e-01</leafValues></_>
        <_>
          <internalNodes>
            0 -1 61 -1.4165333472192287e-02</internalNodes>
          <leafValues>
            -8.7832301855087280e-01 1.8741054832935333e-01</leafValues></_>
        <_>
          <internalNodes>
            0 -1 70 -3.0525082722306252e-02</internalNodes>
          <leafValues>
            4.7365358471870422e-01 -3.4804603457450867e-01</leafValues></_>
        <_>
          <internalNodes>
            0 -1 73 -3.0508557334542274e-02</internalNodes>
          <leafValues>
            6.0909634828567505e-01 -3.4108075499534607e-01</leafValues></_>
        <_>
          <internalNodes>
            0 -1 59 -2.3565678857266903e-03</internalNodes>
          <leafValues>
            3.5356655716896057e-01 -6.3405430316925049e-01</leafValues></_>
        <_>
          <internalNodes>
            0 -1 75 1.4933670172467828e-05</internalNodes>
          <leafValues>
            -3.9425659179687500e-01 5.3804105520248413e-01</leafValues></_>
        <_>
          <internalNodes>
            0 -1 92 5.8779527898877859e-04</internalNodes>
          <leafValues>
            -2.7158930897712708e-01 6.7465335130691528e-01</leafValues></_></weakClassifiers></_>
    <!-- stage 14 -->
    <_>
      <maxWeakCount>7</maxWeakCount>
      <stageThreshold>1.4226427301764488e-02</stageThreshold>
      <weakClassifiers>
        <_>
          <internalNodes>
            0 -1 31 -2.1196529269218445e-03</internalNodes>
          <leafValues>
            -9.2307692766189575e-01 5.7647061347961426e-01</leafValues></_>
        <_>
          <internalNodes>
            0 -1 55 -6.4634229056537151e-04</internalNodes>
          <leafValues>
            -6.0830491781234741e-01 4.9566841125488281e-01</leafValues></_>
        <_>
          <internalNodes>
            0 -1 84 6.6104246070608497e-04</internalNodes>
          <leafValues>
            5.6299751996994019e-01 -4.8498097062110901e-01</leafValues></_>
        <_>
          <internalNodes>
            0 -1 28 4.3011468369513750e-04</internalNodes>
          <leafValues>
            3.3881998062133789e-01 -7.3130941390991211e-01</leafValues></_>
        <_>
          <internalNodes>
            0 -1 82 -4.3433578684926033e-04</internalNodes>
          <leafValues>
            -8.4543108940124512e-01 2.3775689303874969e-01</leafValues></_>
        <_>
          <internalNodes>
            0 -1 78 -1.6673260834068060e-03</internalNodes>
          <leafValues>
            8.7497919797897339e-01 -2.9625412821769714e-01</leafValues></_>
        <_>
          <internalNodes>
            0 -1 48 2.3703163024038076e-03</internalNodes>
          <leafValues>
            2.7286988496780396e-01 -7.8321510553359985e-01</leafValues></_></weakClassifiers></_></stages>
  <features>
    <_>
      <rects>
        <_>
          0 0 3 34 -1.</_>
        <_>
          0 17 3 17 2.</_></rects>
      <tilted>0</tilted></_>
    <_>
      <rects>
        <_>
          0 8 30 22 -1.</_>
        <_>
          10 8 10 22 3.</_></rects>
      <tilted>0</tilted></_>
    <_>
      <rects>
        <_>
          0 8 30 24 -1.</_>
        <_>
          10 8 10 24 3.</_></rects>
      <tilted>0</tilted></_>
    <_>
      <rects>
        <_>
          0 9 24 24 -1.</_>
        <_>
          8 9 8 24 3.</_></rects>
      <tilted>0</tilted></_>
    <_>
      <rects>
        <_>
          0 9 30 24 -1.</_>
        <_>
          10 9 10 24 3.</_></rects>
      <tilted>0</tilted></_>
    <_>
      <rects>
        <_>
          0 11 2 9 -1.</_>
        <_>
          1 11 1 9 2.</_></rects>
      <tilted>0</tilted></_>
    <_>
      <rects>
        <_>
          0 12 2 1 -1.</_>
        <_>
          1 12 1 1 2.</_></rects>
      <tilted>0</tilted></_>
    <_>
      <rects>
        <_>
          0 16 21 17 -1.</_>
        <_>
          7 16 7 17 3.</_></rects>
      <tilted>0</tilted></_>
    <_>
      <rects>
        <_>
          0 19 12 11 -1.</_>
        <_>
          6 19 6 11 2.</_></rects>
      <tilted>0</tilted></_>
    <_>
      <rects>
        <_>
          0 21 18 10 -1.</_>
        <_>
          6 21 6 10 3.</_></rects>
      <tilted>0</tilted></_>
    <_>
      <rects>
        <_>
          0 24 10 12 -1.</_>
        <_>
          0 24 5 6 2.</_>
        <_>
          5 30 5 6 2.</_></rects>
      <tilted>0</tilted></_>
    <_>
      <rects>
        <_>
          0 27 12 8 -1.</_>
        <_>
          0 27 6 4 2.</_>
        <_>
          6 31 6 4 2.</_></rects>
      <tilted>0</tilted></_>
    <_>
      <rects>
        <_>
          0 31 4 4 -1.</_>
        <_>
          2 31 2 4 2.</_></rects>
      <tilted>0</tilted></_>
    <_>
      <rects>
        <_>
          1 4 30 26 -1.</_>
        <_>
          11 4 10 26 3.</_></rects>
      <tilted>0</tilted></_>
    <_>
      <rects>
        <_>
          1 5 30 28 -1.</_>
        <_>
          11 5 10 28 3.</_></rects>
      <tilted>0</tilted></_>
    <_>
      <rects>
        <_>
          1 6 30 26 -1.</_>
        <_>
          11 6 10 26 3.</_></rects>
      <tilted>0</tilted></_>
    <_>
      <rects>
        <_>
          1 18 12 10 -1.</_>
        <_>
          5 18 4 10 3.</_></rects>
      <tilted>0</tilted></_>
    <_>
      <rects>
        <_>
          1 27 2 1 -1.</_>
        <_>
          2 27 1 1 2.</_></rects>
      <tilted>0</tilted></_>
    <_>
      <rects>
        <_>
          2 5 14 13 -1.</_>
        <_>
          9 5 7 13 2.</_></rects>
      <tilted>0</tilted></_>
    <_>
      <rects>
        <_>
          2 7 18 27 -1.</_>
        <_>
          8 7 6 27 3.</_></rects>
      <tilted>0</tilted></_>
    <_>
      <rects>
        <_>
          2 15 30 18 -1.</_>
        <_>
          12 15 10 18 3.</_></rects>
      <tilted>0</tilted></_>
    <_>
      <rects>
        <_>
          2 25 9 2 -1.</_>
        <_>
          5 25 3 2 3.</_></rects>
      <tilted>0</tilted></_>
    <_>
      <rects>
        <_>
          3 14 26 21 -1.</_>
        <_>
          3 21 26 7 3.</_></rects>
      <tilted>0</tilted></_>
    <_>
      <rects>
        <_>
          4 16 21 1 -1.</_>
        <_>
          11 16 7 1 3.</_></rects>
      <tilted>0</tilted></_>
    <_>
      <rects>
        <_>
          5 14 3 3 -1.</_>
        <_>
          6 14 1 3 3.</_></rects>
      <tilted>0</tilted></_>
    <_>
      <rects>
        <_>
          5 24 21 12 -1.</_>
        <_>
          5 28 21 4 3.</_></rects>
      <tilted>0</tilted></_>
    <_>
      <rects>
        <_>
          6 30 24 6 -1.</_>
        <_>
          6 32 24 2 3.</_></rects>
      <tilted>0</tilted></_>
    <_>
      <rects>
        <_>
          7 21 18 15 -1.</_>
        <_>
          7 26 18 5 3.</_></rects>
      <tilted>0</tilted></_>
    <_>
      <rects>
        <_>
          7 23 10 9 -1.</_>
        <_>
          7 26 10 3 3.</_></rects>
      <tilted>0</tilted></_>
    <_>
      <rects>
        <_>
          7 28 17 6 -1.</_>
        <_>
          7 31 17 3 2.</_></rects>
      <tilted>0</tilted></_>
    <_>
      <rects>
        <_>
          8 1 2 28 -1.</_>
        <_>
          8 1 1 14 2.</_>
        <_>
          9 15 1 14 2.</_></rects>
      <tilted>0</tilted></_>
    <_>
      <rects>
        <_>
          8 4 9 2 -1.</_>
        <_>
          8 5 9 1 2.</_></rects>
      <tilted>0</tilted></_>
    <_>
      <rects>
        <_>
          8 6 20 15 -1.</_>
        <_>
          8 11 20 5 3.</_></rects>
      <tilted>0</tilted></_>
    <_>
      <rects>
        <_>
          8 28 18 6 -1.</_>
        <_>
          8 31 18 3 2.</_></rects>
      <tilted>0</tilted></_>
    <_>
      <rects>
        <_>
          8 30 5 6 -1.</_>
        <_>
          8 32 5 2 3.</_></rects>
      <tilted>0</tilted></_>
    <_>
      <rects>
        <_>
          9 24 9 9 -1.</_>
        <_>
          12 24 3 9 3.</_></rects>
      <tilted>0</tilted></_>
    <_>
      <rects>
        <_>
          9 24 15 12 -1.</_>
        <_>
          14 24 5 12 3.</_></rects>
      <tilted>0</tilted></_>
    <_>
      <rects>
        <_>
          9 28 6 8 -1.</_>
        <_>
          11 28 2 8 3.</_></rects>
      <tilted>0</tilted></_>
    <_>
      <rects>
        <_>
          9 28 14 6 -1.</_>
        <_>
          9 30 14 2 3.</_></rects>
      <tilted>0</tilted></_>
    <_>
      <rects>
        <_>
          10 0 22 2 -1.</_>
        <_>
          21 0 11 2 2.</_></rects>
      <tilted>0</tilted></_>
    <_>
      <rects>
        <_>
          10 5 12 12 -1.</_>
        <_>
          10 11 12 6 2.</_></rects>
      <tilted>0</tilted></_>
    <_>
      <rects>
        <_>
          10 19 8 8 -1.</_>
        <_>
          14 19 4 8 2.</_></rects>
      <tilted>0</tilted></_>
    <_>
      <rects>
        <_>
          10 20 8 7 -1.</_>
        <_>
          14 20 4 7 2.</_></rects>
      <tilted>0</tilted></_>
    <_>
      <rects>
        <_>
          10 22 1 14 -1.</_>
        <_>
          10 29 1 7 2.</_></rects>
      <tilted>0</tilted></_>
    <_>
      <rects>
        <_>
          10 22 6 14 -1.</_>
        <_>
          12 22 2 14 3.</_></rects>
      <tilted>0</tilted></_>
    <_>
      <rects>
        <_>
          10 22 10 6 -1.</_>
        <_>
          15 22 5 6 2.</_></rects>
      <tilted>0</tilted></_>
    <_>
      <rects>
        <_>
          10 23 22 13 -1.</_>
        <_>
          21 23 11 13 2.</_></rects>
      <tilted>0</tilted></_>
    <_>
      <rects>
        <_>
          10 29 4 6 -1.</_>
        <_>
          10 31 4 2 3.</_></rects>
      <tilted>0</tilted></_>
    <_>
      <rects>
        <_>
          11 15 16 4 -1.</_>
        <_>
          11 17 16 2 2.</_></rects>
      <tilted>0</tilted></_>
    <_>
      <rects>
        <_>
          11 24 9 12 -1.</_>
        <_>
          14 24 3 12 3.</_></rects>
      <tilted>0</tilted></_>
    <_>
      <rects>
        <_>
          11 28 12 8 -1.</_>
        <_>
          15 28 4 8 3.</_></rects>
      <tilted>0</tilted></_>
    <_>
      <rects>
        <_>
          11 28 12 6 -1.</_>
        <_>
          11 30 12 2 3.</_></rects>
      <tilted>0</tilted></_>
    <_>
      <rects>
        <_>
          11 28 13 6 -1.</_>
        <_>
          11 30 13 2 3.</_></rects>
      <tilted>0</tilted></_>
    <_>
      <rects>
        <_>
          12 7 12 1 -1.</_>
        <_>
          18 7 6 1 2.</_></rects>
      <tilted>0</tilted></_>
    <_>
      <rects>
        <_>
          12 11 4 12 -1.</_>
        <_>
          12 15 4 4 3.</_></rects>
      <tilted>0</tilted></_>
    <_>
      <rects>
        <_>
          12 14 2 11 -1.</_>
        <_>
          13 14 1 11 2.</_></rects>
      <tilted>0</tilted></_>
    <_>
      <rects>
        <_>
          12 19 6 15 -1.</_>
        <_>
          14 19 2 15 3.</_></rects>
      <tilted>0</tilted></_>
    <_>
      <rects>
        <_>
          12 23 8 3 -1.</_>
        <_>
          16 23 4 3 2.</_></rects>
      <tilted>0</tilted></_>
    <_>
      <rects>
        <_>
          12 30 7 6 -1.</_>
        <_>
          12 32 7 2 3.</_></rects>
      <tilted>0</tilted></_>
    <_>
      <rects>
        <_>
          13 0 7 26 -1.</_>
        <_>
          13 13 7 13 2.</_></rects>
      <tilted>0</tilted></_>
    <_>
      <rects>
        <_>
          13 16 4 10 -1.</_>
        <_>
          13 21 4 5 2.</_></rects>
      <tilted>0</tilted></_>
    <_>
      <rects>
        <_>
          14 5 8 12 -1.</_>
        <_>
          14 9 8 4 3.</_></rects>
      <tilted>0</tilted></_>
    <_>
      <rects>
        <_>
          14 13 9 6 -1.</_>
        <_>
          14 15 9 2 3.</_></rects>
      <tilted>0</tilted></_>
    <_>
      <rects>
        <_>
          14 14 1 22 -1.</_>
        <_>
          14 25 1 11 2.</_></rects>
      <tilted>0</tilted></_>
    <_>
      <rects>
        <_>
          15 18 16 17 -1.</_>
        <_>
          23 18 8 17 2.</_></rects>
      <tilted>0</tilted></_>
    <_>
      <rects>
        <_>
          15 19 4 4 -1.</_>
        <_>
          17 19 2 4 2.</_></rects>
      <tilted>0</tilted></_>
    <_>
      <rects>
        <_>
          15 20 2 1 -1.</_>
        <_>
          16 20 1 1 2.</_></rects>
      <tilted>0</tilted></_>
    <_>
      <rects>
        <_>
          16 13 16 20 -1.</_>
        <_>
          24 13 8 20 2.</_></rects>
      <tilted>0</tilted></_>
    <_>
      <rects>
        <_>
          16 20 9 5 -1.</_>
        <_>
          19 20 3 5 3.</_></rects>
      <tilted>0</tilted></_>
    <_>
      <rects>
        <_>
          16 21 16 13 -1.</_>
        <_>
          24 21 8 13 2.</_></rects>
      <tilted>0</tilted></_>
    <_>
      <rects>
        <_>
          16 22 12 14 -1.</_>
        <_>
          16 22 6 7 2.</_>
        <_>
          22 29 6 7 2.</_></rects>
      <tilted>0</tilted></_>
    <_>
      <rects>
        <_>
          16 27 9 9 -1.</_>
        <_>
          16 30 9 3 3.</_></rects>
      <tilted>0</tilted></_>
    <_>
      <rects>
        <_>
          17 20 4 16 -1.</_>
        <_>
          17 28 4 8 2.</_></rects>
      <tilted>0</tilted></_>
    <_>
      <rects>
        <_>
          17 22 15 6 -1.</_>
        <_>
          22 22 5 6 3.</_></rects>
      <tilted>0</tilted></_>
    <_>
      <rects>
        <_>
          19 8 6 1 -1.</_>
        <_>
          21 8 2 1 3.</_></rects>
      <tilted>0</tilted></_>
    <_>
      <rects>
        <_>
          19 14 2 2 -1.</_>
        <_>
          19 15 2 1 2.</_></rects>
      <tilted>0</tilted></_>
    <_>
      <rects>
        <_>
          19 20 12 6 -1.</_>
        <_>
          23 20 4 6 3.</_></rects>
      <tilted>0</tilted></_>
    <_>
      <rects>
        <_>
          19 23 2 2 -1.</_>
        <_>
          20 23 1 2 2.</_></rects>
      <tilted>0</tilted></_>
    <_>
      <rects>
        <_>
          19 31 3 3 -1.</_>
        <_>
          19 32 3 1 3.</_></rects>
      <tilted>0</tilted></_>
    <_>
      <rects>
        <_>
          20 18 5 18 -1.</_>
        <_>
          20 24 5 6 3.</_></rects>
      <tilted>0</tilted></_>
    <_>
      <rects>
        <_>
          20 23 6 12 -1.</_>
        <_>
          20 27 6 4 3.</_></rects>
      <tilted>0</tilted></_>
    <_>
      <rects>
        <_>
          20 25 12 2 -1.</_>
        <_>
          26 25 6 2 2.</_></rects>
      <tilted>0</tilted></_>
    <_>
      <rects>
        <_>
          20 32 2 4 -1.</_>
        <_>
          21 32 1 4 2.</_></rects>
      <tilted>0</tilted></_>
    <_>
      <rects>
        <_>
          20 32 12 4 -1.</_>
        <_>
          24 32 4 4 3.</_></rects>
      <tilted>0</tilted></_>
    <_>
      <rects>
        <_>
          20 32 5 4 -1.</_>
        <_>
          20 34 5 2 2.</_></rects>
      <tilted>0</tilted></_>
    <_>
      <rects>
        <_>
          21 24 5 12 -1.</_>
        <_>
          21 28 5 4 3.</_></rects>
      <tilted>0</tilted></_>
    <_>
      <rects>
        <_>
          21 26 2 1 -1.</_>
        <_>
          22 26 1 1 2.</_></rects>
      <tilted>0</tilted></_>
    <_>
      <rects>
        <_>
          23 9 3 2 -1.</_>
        <_>
          24 9 1 2 3.</_></rects>
      <tilted>0</tilted></_>
    <_>
      <rects>
        <_>
          23 34 4 2 -1.</_>
        <_>
          25 34 2 2 2.</_></rects>
      <tilted>0</tilted></_>
    <_>
      <rects>
        <_>
          24 13 8 8 -1.</_>
        <_>
          24 13 4 4 2.</_>
        <_>
          28 17 4 4 2.</_></rects>
      <tilted>0</tilted></_>
    <_>
      <rects>
        <_>
          24 23 2 1 -1.</_>
        <_>
          25 23 1 1 2.</_></rects>
      <tilted>0</tilted></_>
    <_>
      <rects>
        <_>
          25 11 2 2 -1.</_>
        <_>
          25 11 1 1 2.</_>
        <_>
          26 12 1 1 2.</_></rects>
      <tilted>0</tilted></_>
    <_>
      <rects>
        <_>
          25 23 2 8 -1.</_>
        <_>
          25 23 1 4 2.</_>
        <_>
          26 27 1 4 2.</_></rects>
      <tilted>0</tilted></_>
    <_>
      <rects>
        <_>
          26 22 2 1 -1.</_>
        <_>
          27 22 1 1 2.</_></rects>
      <tilted>0</tilted></_>
    <_>
      <rects>
        <_>
          26 32 6 4 -1.</_>
        <_>
          28 32 2 4 3.</_></rects>
      <tilted>0</tilted></_>
    <_>
      <rects>
        <_>
          27 23 1 2 -1.</_>
        <_>
          27 24 1 1 2.</_></rects>
      <tilted>0</tilted></_>
    <_>
      <rects>
        <_>
          28 5 3 17 -1.</_>
        <_>
          29 5 1 17 3.</_></rects>
      <tilted>0</tilted></_>
    <_>
      <rects>
        <_>
          28 34 4 2 -1.</_>
        <_>
          30 34 2 2 2.</_></rects>
      <tilted>0</tilted></_></features></cascade>
</opencv_storage>
